<?xml version="1.0"?>
<opencv_storage>
<cascade>
  <stageType>BOOST</stageType>
  <featureType>LBP</featureType>
  <height>24</height>
  <width>24</width>
  <stageParams>
    <boostType>GAB</boostType>
    <minHitRate>9.9500000476837158e-01</minHitRate>
    <maxFalseAlarm>5.0000000000000000e-01</maxFalseAlarm>
    <weightTrimRate>9.4999998807907104e-01</weightTrimRate>
    <maxDepth>1</maxDepth>
    <maxWeakCount>100</maxWeakCount></stageParams>
  <featureParams>
    <maxCatCount>256</maxCatCount>
    <featSize>1</featSize></featureParams>
  <stageNum>13</stageNum>
  <stages>
    <!-- stage 0 -->
    <_>
      <maxWeakCount>2</maxWeakCount>
      <stageThreshold>-6.2593206763267517e-02</stageThreshold>
      <weakClassifiers>
        <_>
          <internalNodes>
            0 -1 8 -787484165 -779005695 1359069267 -184299519 134267022
            -662667128 420550875 -74722341</internalNodes>
          <leafValues>
            -9.4557821750640869e-01 8.5714286565780640e-01</leafValues></_>
        <_>
          <internalNodes>
            0 -1 16 -145108513 -1853812464 16880849 -751579045
            -2004254550 -939351904 -1073577781 -71319141</internalNodes>
          <leafValues>
            -9.1973608732223511e-01 9.4369292259216309e-01</leafValues></_></weakClassifiers></_>
    <!-- stage 1 -->
    <_>
      <maxWeakCount>2</maxWeakCount>
      <stageThreshold>-2.4645227193832397e-01</stageThreshold>
      <weakClassifiers>
        <_>
          <internalNodes>
            0 -1 14 -141299237 -574554111 1343247253 -654213119
            -2003786853 -662102014 -1048018193 -351295445</internalNodes>
          <leafValues>
            -9.5852535963058472e-01 7.1428573131561279e-01</leafValues></_>
        <_>
          <internalNodes>
            0 -1 12 -207653385 -50134781 -805281295 -721223423
            -402612033 -1665136512 -2012691973 -580674942</internalNodes>
          <leafValues>
            -9.6073800325393677e-01 7.3746949434280396e-01</leafValues></_></weakClassifiers></_>
    <!-- stage 2 -->
    <_>
      <maxWeakCount>2</maxWeakCount>
      <stageThreshold>-3.6317765712738037e-01</stageThreshold>
      <weakClassifiers>
        <_>
          <internalNodes>
            0 -1 1 -698884129 1426412545 -1065122495 -686075693
            1883761963 848794499 -879564293 -72625493</internalNodes>
          <leafValues>
            -9.8113209009170532e-01 5.9322035312652588e-01</leafValues></_>
        <_>
          <internalNodes>
            0 -1 17 -738735105 -746248042 402981119 1598267423
            -1711146005 -209158144 -895643489 -67139334</internalNodes>
          <leafValues>
            -9.5639801025390625e-01 7.0708179473876953e-01</leafValues></_></weakClassifiers></_>
    <!-- stage 3 -->
    <_>
      <maxWeakCount>2</maxWeakCount>
      <stageThreshold>-3.6215889453887939e-01</stageThreshold>
      <weakClassifiers>
        <_>
          <internalNodes>
            0 -1 21 1561721855 932536627 134357307 1033863209
            -1328289541 940294658 -603225089 -262673</internalNodes>
          <leafValues>
            -9.6313363313674927e-01 7.5510203838348389e-01</leafValues></_>
        <_>
          <internalNodes>
            0 -1 4 -779635713 -619380153 -1845375493 -711000057
            684792214 1856536755 -880082273 -72817</internalNodes>
          <leafValues>
            -9.9432736635208130e-01 6.0097473859786987e-01</leafValues></_></weakClassifiers></_>
    <!-- stage 4 -->
    <_>
      <maxWeakCount>3</maxWeakCount>
      <stageThreshold>-1.1399569511413574e+00</stageThreshold>
      <weakClassifiers>
        <_>
          <internalNodes>
            0 -1 9 -748691457 -83433017 1694614287 -54296295 -619185993
            1445401778 -2029269857 -20981089</internalNodes>
          <leafValues>
            -9.4117647409439087e-01 8.5365855693817139e-01</leafValues></_>
        <_>
          <internalNodes>
            0 -1 5 -269486097 -665591485 -1878893238 -636313598
            1802238809 -265648127 -137371645 -35652369</internalNodes>
          <leafValues>
            -9.4106692075729370e-01 7.6699769496917725e-01</leafValues></_>
        <_>
          <internalNodes>
            0 -1 6 -1686110321 -809139943 -1593720437 -142245879
            -392962177 2034678147 361485231 -96735553</internalNodes>
          <leafValues>
            -9.7870618104934692e-01 7.4228644371032715e-01</leafValues></_></weakClassifiers></_>
    <!-- stage 5 -->
    <_>
      <maxWeakCount>3</maxWeakCount>
      <stageThreshold>-1.1550394296646118e+00</stageThreshold>
      <weakClassifiers>
        <_>
          <internalNodes>
            0 -1 26 -203950145 1934087491 -2113847263 860037123
            -670400361 -922662400 -938862453 -342628181</internalNodes>
          <leafValues>
            -9.3650794029235840e-01 7.6190477609634399e-01</leafValues></_>
        <_>
          <internalNodes>
            0 -1 15 -605946883 -775032747 -184486792 -546848509
            -645686277 -1432836071 -116997927 -5246310</internalNodes>
          <leafValues>
            -9.3958771228790283e-01 7.6730084419250488e-01</leafValues></_>
        <_>
          <internalNodes>
            0 -1 18 -146276873 1561792568 -1786652323 -14981491
            -937783074 -1732237152 -1154549362 -1633879558</internalNodes>
          <leafValues>
            -9.6594536304473877e-01 7.2105628252029419e-01</leafValues></_></weakClassifiers></_>
    <!-- stage 6 -->
    <_>
      <maxWeakCount>2</maxWeakCount>
      <stageThreshold>-3.7742543220520020e-01</stageThreshold>
      <weakClassifiers>
        <_>
          <internalNodes>
            0 -1 19 -1875028485 -34736829 1629098073 -48902121
            -2132223045 -610260966 -1902864929 -1143240049</internalNodes>
          <leafValues>
            -9.5348834991455078e-01 5.4716980457305908e-01</leafValues></_>
        <_>
          <internalNodes>
            0 -1 7 -10748929 1574954143 -921369151 -137114435 2055911867
            -350005145 -100431701 -5256497</internalNodes>
          <leafValues>
            -9.2459523677825928e-01 7.7575635910034180e-01</leafValues></_></weakClassifiers></_>
    <!-- stage 7 -->
    <_>
      <maxWeakCount>2</maxWeakCount>
      <stageThreshold>-2.5143688917160034e-01</stageThreshold>
      <weakClassifiers>
        <_>
          <internalNodes>
            0 -1 10 -67643937 -6061613 479303754 -372910968 -625370721
            1166155679 -893126362 -1056117</internalNodes>
          <leafValues>
            -9.2808991670608521e-01 8.4210526943206787e-01</leafValues></_>
        <_>
          <internalNodes>
            0 -1 2 -689968161 -1542332029 8716800 -561840126 1348068707
            -2109701567 1082364550 -135270858</internalNodes>
          <leafValues>
            -9.4960671663284302e-01 6.7665296792984009e-01</leafValues></_></weakClassifiers></_>
    <!-- stage 8 -->
    <_>
      <maxWeakCount>2</maxWeakCount>
      <stageThreshold>-4.3951275944709778e-01</stageThreshold>
      <weakClassifiers>
        <_>
          <internalNodes>
            0 -1 25 -644874257 1268554063 -183672627 -611139269
            -368606990 1477681680 -1026823477 -524353</internalNodes>
          <leafValues>
            -9.5784544944763184e-01 5.0000000000000000e-01</leafValues></_>
        <_>
          <internalNodes>
            0 -1 0 -780930345 1935769773 370254237 -1185681193
            -1467117057 -255680499 -2071861029 -3174105</internalNodes>
          <leafValues>
            -9.3951278924942017e-01 6.7476451396942139e-01</leafValues></_></weakClassifiers></_>
    <!-- stage 9 -->
    <_>
      <maxWeakCount>2</maxWeakCount>
      <stageThreshold>-2.7222344279289246e-01</stageThreshold>
      <weakClassifiers>
        <_>
          <internalNodes>
            0 -1 22 -161481733 -640187689 814284801 -304881279
            1493555611 -1063871962 -745957181 -17831185</internalNodes>
          <leafValues>
            -9.2776525020599365e-01 7.5000000000000000e-01</leafValues></_>
        <_>
          <internalNodes>
            0 -1 13 -74994721 -573026021 -712296045 -1652567911
            -1065055345 -75340645 -18223669 -68900607</internalNodes>
          <leafValues>
            -9.5609545707702637e-01 6.5554177761077881e-01</leafValues></_></weakClassifiers></_>
    <!-- stage 10 -->
    <_>
      <maxWeakCount>2</maxWeakCount>
      <stageThreshold>-3.0759495496749878e-01</stageThreshold>
      <weakClassifiers>
        <_>
          <internalNodes>
            0 -1 3 330287103 -607071759 364967391 -677567031 -1973687377
            -89044795 -123681857 -20316935</internalNodes>
          <leafValues>
            -9.3607306480407715e-01 6.4444446563720703e-01</leafValues></_>
        <_>
          <internalNodes>
            0 -1 27 -70267957 1175568531 -2129559472 -1064496829
            860586499 -234323904 -234126450 -84940577</internalNodes>
          <leafValues>
            -9.5203942060470581e-01 6.5572392940521240e-01</leafValues></_></weakClassifiers></_>
    <!-- stage 11 -->
    <_>
      <maxWeakCount>2</maxWeakCount>
      <stageThreshold>-3.1826922297477722e-01</stageThreshold>
      <weakClassifiers>
        <_>
          <internalNodes>
            0 -1 24 -238041633 -115358621 -1056715615 -777269209
            -2129315697 998396541 -1626759077 -1056309</internalNodes>
          <leafValues>
            -9.2760181427001953e-01 7.0731705427169800e-01</leafValues></_>
        <_>
          <internalNodes>
            0 -1 23 1940782043 -1793390371 -1694361735 -67403209
            -1155149733 -427122440 -519514373 -444661991</internalNodes>
          <leafValues>
            -9.5402169227600098e-01 6.0933256149291992e-01</leafValues></_></weakClassifiers></_>
    <!-- stage 12 -->
    <_>
      <maxWeakCount>2</maxWeakCount>
      <stageThreshold>-3.5456463694572449e-01</stageThreshold>
      <weakClassifiers>
        <_>
          <internalNodes>
            0 -1 11 -144966689 -913018050 1610678797 -104488721
            -905212129 -496479501 -179193338 -3408173</internalNodes>
          <leafValues>
            -9.4022989273071289e-01 5.8333331346511841e-01</leafValues></_>
        <_>
          <internalNodes>
            0 -1 20 -2125450283 -116821755 -2028355107 -553263123
            -1054568213 -1714765771 -1139217457 -6698609</internalNodes>
          <leafValues>
            -9.3789798021316528e-01 7.0117551088333130e-01</leafValues></_></weakClassifiers></_></stages>
  <features>
    <_>
      <rect>
        0 1 3 3</rect></_>
    <_>
      <rect>
        0 7 4 4</rect></_>
    <_>
      <rect>
        0 8 1 3</rect></_>
    <_>
      <rect>
        0 13 3 2</rect></_>
    <_>
      <rect>
        1 6 5 3</rect></_>
    <_>
      <rect>
        1 7 2 5</rect></_>
    <_>
      <rect>
        1 9 3 3</rect></_>
    <_>
      <rect>
        1 11 3 3</rect></_>
    <_>
      <rect>
        2 6 2 6</rect></_>
    <_>
      <rect>
        2 12 2 3</rect></_>
    <_>
      <rect>
        2 12 2 4</rect></_>
    <_>
      <rect>
        2 14 1 2</rect></_>
    <_>
      <rect>
        4 0 5 4</rect></_>
    <_>
      <rect>
        4 2 5 2</rect></_>
    <_>
      <rect>
        5 0 4 5</rect></_>
    <_>
      <rect>
        6 10 3 3</rect></_>
    <_>
      <rect>
        6 11 2 2</rect></_>
    <_>
      <rect>
        7 11 3 3</rect></_>
    <_>
      <rect>
        7 13 3 2</rect></_>
    <_>
      <rect>
        7 18 2 1</rect></_>
    <_>
      <rect>
        7 18 4 2</rect></_>
    <_>
      <rect>
        8 5 5 3</rect></_>
    <_>
      <rect>
        9 1 2 4</rect></_>
    <_>
      <rect>
        10 3 2 2</rect></_>
    <_>
      <rect>
        13 9 3 5</rect></_>
    <_>
      <rect>
        14 6 3 5</rect></_>
    <_>
      <rect>
        15 5 2 6</rect></_>
    <_>
      <rect>
        18 5 1 2</rect></_></features></cascade>
</opencv_storage>
