<?xml version="1.0"?>
<opencv_storage>
<cascade>
  <stageType>BOOST</stageType>
  <featureType>HAAR</featureType>
  <height>24</height>
  <width>24</width>
  <stageParams>
    <boostType>GAB</boostType>
    <minHitRate>9.9500000476837158e-01</minHitRate>
    <maxFalseAlarm>5.0000000000000000e-01</maxFalseAlarm>
    <weightTrimRate>9.4999998807907104e-01</weightTrimRate>
    <maxDepth>1</maxDepth>
    <maxWeakCount>100</maxWeakCount></stageParams>
  <featureParams>
    <maxCatCount>0</maxCatCount>
    <featSize>1</featSize>
    <mode>BASIC</mode></featureParams>
  <stageNum>13</stageNum>
  <stages>
    <!-- stage 0 -->
    <_>
      <maxWeakCount>3</maxWeakCount>
      <stageThreshold>-1.1909184455871582e+00</stageThreshold>
      <weakClassifiers>
        <_>
          <internalNodes>
            0 -1 18 -9.8856426775455475e-03</internalNodes>
          <leafValues>
            6.3999998569488525e-01 -9.5381063222885132e-01</leafValues></_>
        <_>
          <internalNodes>
            0 -1 17 -6.3960686326026917e-02</internalNodes>
          <leafValues>
            6.9213211536407471e-01 -9.1845750808715820e-01</leafValues></_>
        <_>
          <internalNodes>
            0 -1 4 -1.3690616004168987e-02</internalNodes>
          <leafValues>
            6.8134975433349609e-01 -9.2765438556671143e-01</leafValues></_></weakClassifiers></_>
    <!-- stage 1 -->
    <_>
      <maxWeakCount>3</maxWeakCount>
      <stageThreshold>-1.0164595842361450e+00</stageThreshold>
      <weakClassifiers>
        <_>
          <internalNodes>
            0 -1 19 -5.0644762814044952e-02</internalNodes>
          <leafValues>
            7.2727274894714355e-01 -9.4077450037002563e-01</leafValues></_>
        <_>
          <internalNodes>
            0 -1 43 6.3350513577461243e-02</internalNodes>
          <leafValues>
            -8.6464536190032959e-01 7.2485142946243286e-01</leafValues></_>
        <_>
          <internalNodes>
            0 -1 15 4.2306821793317795e-02</internalNodes>
          <leafValues>
            -8.0053657293319702e-01 7.9292809963226318e-01</leafValues></_></weakClassifiers></_>
    <!-- stage 2 -->
    <_>
      <maxWeakCount>3</maxWeakCount>
      <stageThreshold>-1.1628681421279907e+00</stageThreshold>
      <weakClassifiers>
        <_>
          <internalNodes>
            0 -1 29 2.0500725135207176e-02</internalNodes>
          <leafValues>
            -9.1071426868438721e-01 7.7142858505249023e-01</leafValues></_>
        <_>
          <internalNodes>
            0 -1 6 -2.1227059885859489e-02</internalNodes>
          <leafValues>
            5.1281481981277466e-01 -8.1778967380523682e-01</leafValues></_>
        <_>
          <internalNodes>
            0 -1 37 -2.4583622813224792e-02</internalNodes>
          <leafValues>
            6.7863726615905762e-01 -7.6496869325637817e-01</leafValues></_></weakClassifiers></_>
    <!-- stage 3 -->
    <_>
      <maxWeakCount>3</maxWeakCount>
      <stageThreshold>-1.1980615854263306e+00</stageThreshold>
      <weakClassifiers>
        <_>
          <internalNodes>
            0 -1 14 1.6545023769140244e-02</internalNodes>
          <leafValues>
            -9.0067720413208008e-01 4.4999998807907104e-01</leafValues></_>
        <_>
          <internalNodes>
            0 -1 32 1.0257925838232040e-02</internalNodes>
          <leafValues>
            -7.2209590673446655e-01 6.0103577375411987e-01</leafValues></_>
        <_>
          <internalNodes>
            0 -1 9 -1.3558730483055115e-02</internalNodes>
          <leafValues>
            4.4306465983390808e-01 -8.9842009544372559e-01</leafValues></_></weakClassifiers></_>
    <!-- stage 4 -->
    <_>
      <maxWeakCount>3</maxWeakCount>
      <stageThreshold>-1.4614096879959106e+00</stageThreshold>
      <weakClassifiers>
        <_>
          <internalNodes>
            0 -1 24 -6.8216342478990555e-03</internalNodes>
          <leafValues>
            3.6363637447357178e-01 -9.0432798862457275e-01</leafValues></_>
        <_>
          <internalNodes>
            0 -1 20 -5.5680520832538605e-02</internalNodes>
          <leafValues>
            1.5383647382259369e-01 -8.9663749933242798e-01</leafValues></_>
        <_>
          <internalNodes>
            0 -1 8 -2.3205656558275223e-02</internalNodes>
          <leafValues>
            5.1854473352432251e-01 -7.1091812849044800e-01</leafValues></_></weakClassifiers></_>
    <!-- stage 5 -->
    <_>
      <maxWeakCount>4</maxWeakCount>
      <stageThreshold>-1.6851496696472168e+00</stageThreshold>
      <weakClassifiers>
        <_>
          <internalNodes>
            0 -1 41 -2.1560974419116974e-02</internalNodes>
          <leafValues>
            2.5000000000000000e-01 -9.2505854368209839e-01</leafValues></_>
        <_>
          <internalNodes>
            0 -1 13 4.9792369827628136e-03</internalNodes>
          <leafValues>
            -7.0533978939056396e-01 7.3120206594467163e-01</leafValues></_>
        <_>
          <internalNodes>
            0 -1 28 -8.2582384347915649e-03</internalNodes>
          <leafValues>
            6.0498237609863281e-01 -7.0513319969177246e-01</leafValues></_>
        <_>
          <internalNodes>
            0 -1 10 4.7416295856237411e-03</internalNodes>
          <leafValues>
            -6.3035869598388672e-01 6.5038186311721802e-01</leafValues></_></weakClassifiers></_>
    <!-- stage 6 -->
    <_>
      <maxWeakCount>4</maxWeakCount>
      <stageThreshold>-1.6102943420410156e+00</stageThreshold>
      <weakClassifiers>
        <_>
          <internalNodes>
            0 -1 2 -5.4500974714756012e-02</internalNodes>
          <leafValues>
            2.0833332836627960e-01 -8.9885056018829346e-01</leafValues></_>
        <_>
          <internalNodes>
            0 -1 12 8.6610309779644012e-02</internalNodes>
          <leafValues>
            -7.0362359285354614e-01 5.5261766910552979e-01</leafValues></_>
        <_>
          <internalNodes>
            0 -1 16 -2.6554714888334274e-02</internalNodes>
          <leafValues>
            4.8324441909790039e-01 -7.0014107227325439e-01</leafValues></_>
        <_>
          <internalNodes>
            0 -1 26 1.9824889022856951e-03</internalNodes>
          <leafValues>
            -4.9106457829475403e-01 7.3443764448165894e-01</leafValues></_></weakClassifiers></_>
    <!-- stage 7 -->
    <_>
      <maxWeakCount>4</maxWeakCount>
      <stageThreshold>-1.5300756692886353e+00</stageThreshold>
      <weakClassifiers>
        <_>
          <internalNodes>
            0 -1 34 -6.6940158605575562e-02</internalNodes>
          <leafValues>
            2.6086956262588501e-01 -8.9931350946426392e-01</leafValues></_>
        <_>
          <internalNodes>
            0 -1 31 5.3972616791725159e-02</internalNodes>
          <leafValues>
            -7.0247131586074829e-01 4.6746966242790222e-01</leafValues></_>
        <_>
          <internalNodes>
            0 -1 35 3.3380796667188406e-03</internalNodes>
          <leafValues>
            -5.3944122791290283e-01 7.5824230909347534e-01</leafValues></_>
        <_>
          <internalNodes>
            0 -1 36 8.7469622492790222e-02</internalNodes>
          <leafValues>
            -5.5879056453704834e-01 6.7381173372268677e-01</leafValues></_></weakClassifiers></_>
    <!-- stage 8 -->
    <_>
      <maxWeakCount>4</maxWeakCount>
      <stageThreshold>-1.5622709989547729e+00</stageThreshold>
      <weakClassifiers>
        <_>
          <internalNodes>
            0 -1 21 -2.2970248013734818e-02</internalNodes>
          <leafValues>
            5.1515150070190430e-01 -8.8444441556930542e-01</leafValues></_>
        <_>
          <internalNodes>
            0 -1 33 -4.7133564949035645e-03</internalNodes>
          <leafValues>
            2.6014319062232971e-01 -7.8874635696411133e-01</leafValues></_>
        <_>
          <internalNodes>
            0 -1 42 3.9260564371943474e-03</internalNodes>
          <leafValues>
            -4.7283124923706055e-01 6.9417488574981689e-01</leafValues></_>
        <_>
          <internalNodes>
            0 -1 40 -2.9337317682802677e-03</internalNodes>
          <leafValues>
            5.9569764137268066e-01 -5.8325511217117310e-01</leafValues></_></weakClassifiers></_>
    <!-- stage 9 -->
    <_>
      <maxWeakCount>3</maxWeakCount>
      <stageThreshold>-1.1559407711029053e+00</stageThreshold>
      <weakClassifiers>
        <_>
          <internalNodes>
            0 -1 45 -3.6242432892322540e-02</internalNodes>
          <leafValues>
            1. -8.4221750497817993e-01</leafValues></_>
        <_>
          <internalNodes>
            0 -1 7 -1.8299439921975136e-02</internalNodes>
          <leafValues>
            3.7245154380798340e-01 -7.6425713300704956e-01</leafValues></_>
        <_>
          <internalNodes>
            0 -1 23 -2.1933838725090027e-02</internalNodes>
          <leafValues>
            4.9647676944732666e-01 -6.8617486953735352e-01</leafValues></_></weakClassifiers></_>
    <!-- stage 10 -->
    <_>
      <maxWeakCount>3</maxWeakCount>
      <stageThreshold>-1.1857746839523315e+00</stageThreshold>
      <weakClassifiers>
        <_>
          <internalNodes>
            0 -1 25 -1.6534075140953064e-02</internalNodes>
          <leafValues>
            7.1428573131561279e-01 -8.5714286565780640e-01</leafValues></_>
        <_>
          <internalNodes>
            0 -1 0 -1.8758118152618408e-02</internalNodes>
          <leafValues>
            5.7737904787063599e-01 -6.2460321187973022e-01</leafValues></_>
        <_>
          <internalNodes>
            0 -1 44 2.1620197221636772e-03</internalNodes>
          <leafValues>
            2.9597139358520508e-01 -9.7063869237899780e-01</leafValues></_></weakClassifiers></_>
    <!-- stage 11 -->
    <_>
      <maxWeakCount>5</maxWeakCount>
      <stageThreshold>-1.5644073486328125e+00</stageThreshold>
      <weakClassifiers>
        <_>
          <internalNodes>
            0 -1 27 -6.3117574900388718e-03</internalNodes>
          <leafValues>
            5.1724135875701904e-01 -8.7224668264389038e-01</leafValues></_>
        <_>
          <internalNodes>
            0 -1 1 -2.5464173406362534e-02</internalNodes>
          <leafValues>
            4.2781975865364075e-01 -7.3779183626174927e-01</leafValues></_>
        <_>
          <internalNodes>
            0 -1 22 -1.3594217598438263e-03</internalNodes>
          <leafValues>
            4.3779662251472473e-01 -6.6057032346725464e-01</leafValues></_>
        <_>
          <internalNodes>
            0 -1 44 -1.5980219468474388e-03</internalNodes>
          <leafValues>
            -6.6327762603759766e-01 4.9586680531501770e-01</leafValues></_>
        <_>
          <internalNodes>
            0 -1 30 1.8973086262121797e-03</internalNodes>
          <leafValues>
            -8.8803219795227051e-01 3.9781570434570313e-01</leafValues></_></weakClassifiers></_>
    <!-- stage 12 -->
    <_>
      <maxWeakCount>5</maxWeakCount>
      <stageThreshold>-1.6007473468780518e+00</stageThreshold>
      <weakClassifiers>
        <_>
          <internalNodes>
            0 -1 11 -1.4640817046165466e-01</internalNodes>
          <leafValues>
            1. -8.3829784393310547e-01</leafValues></_>
        <_>
          <internalNodes>
            0 -1 38 -2.4461727589368820e-02</internalNodes>
          <leafValues>
            6.1549305915832520e-01 -6.5047127008438110e-01</leafValues></_>
        <_>
          <internalNodes>
            0 -1 5 3.7421178421936929e-04</internalNodes>
          <leafValues>
            2.8581121563911438e-01 -1.</leafValues></_>
        <_>
          <internalNodes>
            0 -1 3 1.7131578177213669e-02</internalNodes>
          <leafValues>
            -7.2939968109130859e-01 3.7323421239852905e-01</leafValues></_>
        <_>
          <internalNodes>
            0 -1 39 -3.7768320180475712e-04</internalNodes>
          <leafValues>
            -9.0725094079971313e-01 3.3161029219627380e-01</leafValues></_></weakClassifiers></_></stages>
  <features>
    <_>
      <rects>
        <_>
          0 5 15 1 -1.</_>
        <_>
          5 5 5 1 3.</_></rects>
      <tilted>0</tilted></_>
    <_>
      <rects>
        <_>
          1 5 12 2 -1.</_>
        <_>
          5 5 4 2 3.</_></rects>
      <tilted>0</tilted></_>
    <_>
      <rects>
        <_>
          1 5 12 3 -1.</_>
        <_>
          5 5 4 3 3.</_></rects>
      <tilted>0</tilted></_>
    <_>
      <rects>
        <_>
          1 5 10 8 -1.</_>
        <_>
          1 5 5 4 2.</_>
        <_>
          6 9 5 4 2.</_></rects>
      <tilted>0</tilted></_>
    <_>
      <rects>
        <_>
          1 8 6 2 -1.</_>
        <_>
          4 8 3 2 2.</_></rects>
      <tilted>0</tilted></_>
    <_>
      <rects>
        <_>
          1 12 4 3 -1.</_>
        <_>
          1 13 4 1 3.</_></rects>
      <tilted>0</tilted></_>
    <_>
      <rects>
        <_>
          1 13 4 11 -1.</_>
        <_>
          3 13 2 11 2.</_></rects>
      <tilted>0</tilted></_>
    <_>
      <rects>
        <_>
          1 16 6 4 -1.</_>
        <_>
          4 16 3 4 2.</_></rects>
      <tilted>0</tilted></_>
    <_>
      <rects>
        <_>
          2 7 4 6 -1.</_>
        <_>
          4 7 2 6 2.</_></rects>
      <tilted>0</tilted></_>
    <_>
      <rects>
        <_>
          2 11 10 8 -1.</_>
        <_>
          2 11 5 4 2.</_>
        <_>
          7 15 5 4 2.</_></rects>
      <tilted>0</tilted></_>
    <_>
      <rects>
        <_>
          4 8 2 10 -1.</_>
        <_>
          4 8 1 5 2.</_>
        <_>
          5 13 1 5 2.</_></rects>
      <tilted>0</tilted></_>
    <_>
      <rects>
        <_>
          4 16 14 6 -1.</_>
        <_>
          4 18 14 2 3.</_></rects>
      <tilted>0</tilted></_>
    <_>
      <rects>
        <_>
          4 17 13 6 -1.</_>
        <_>
          4 19 13 2 3.</_></rects>
      <tilted>0</tilted></_>
    <_>
      <rects>
        <_>
          5 10 2 6 -1.</_>
        <_>
          5 10 1 3 2.</_>
        <_>
          6 13 1 3 2.</_></rects>
      <tilted>0</tilted></_>
    <_>
      <rects>
        <_>
          5 12 6 2 -1.</_>
        <_>
          7 12 2 2 3.</_></rects>
      <tilted>0</tilted></_>
    <_>
      <rects>
        <_>
          5 18 6 6 -1.</_>
        <_>
          5 20 6 2 3.</_></rects>
      <tilted>0</tilted></_>
    <_>
      <rects>
        <_>
          6 2 2 15 -1.</_>
        <_>
          6 7 2 5 3.</_></rects>
      <tilted>0</tilted></_>
    <_>
      <rects>
        <_>
          7 13 11 9 -1.</_>
        <_>
          7 16 11 3 3.</_></rects>
      <tilted>0</tilted></_>
    <_>
      <rects>
        <_>
          8 1 1 8 -1.</_>
        <_>
          8 5 1 4 2.</_></rects>
      <tilted>0</tilted></_>
    <_>
      <rects>
        <_>
          8 1 8 6 -1.</_>
        <_>
          8 4 8 3 2.</_></rects>
      <tilted>0</tilted></_>
    <_>
      <rects>
        <_>
          8 1 10 8 -1.</_>
        <_>
          8 5 10 4 2.</_></rects>
      <tilted>0</tilted></_>
    <_>
      <rects>
        <_>
          8 5 4 8 -1.</_>
        <_>
          8 5 2 4 2.</_>
        <_>
          10 9 2 4 2.</_></rects>
      <tilted>0</tilted></_>
    <_>
      <rects>
        <_>
          8 16 1 3 -1.</_>
        <_>
          8 17 1 1 3.</_></rects>
      <tilted>0</tilted></_>
    <_>
      <rects>
        <_>
          9 3 7 6 -1.</_>
        <_>
          9 5 7 2 3.</_></rects>
      <tilted>0</tilted></_>
    <_>
      <rects>
        <_>
          10 4 2 8 -1.</_>
        <_>
          10 4 1 4 2.</_>
        <_>
          11 8 1 4 2.</_></rects>
      <tilted>0</tilted></_>
    <_>
      <rects>
        <_>
          10 8 3 4 -1.</_>
        <_>
          11 8 1 4 3.</_></rects>
      <tilted>0</tilted></_>
    <_>
      <rects>
        <_>
          10 13 3 1 -1.</_>
        <_>
          11 13 1 1 3.</_></rects>
      <tilted>0</tilted></_>
    <_>
      <rects>
        <_>
          10 13 2 4 -1.</_>
        <_>
          10 13 1 2 2.</_>
        <_>
          11 15 1 2 2.</_></rects>
      <tilted>0</tilted></_>
    <_>
      <rects>
        <_>
          10 16 7 3 -1.</_>
        <_>
          10 17 7 1 3.</_></rects>
      <tilted>0</tilted></_>
    <_>
      <rects>
        <_>
          11 5 4 8 -1.</_>
        <_>
          11 5 2 4 2.</_>
        <_>
          13 9 2 4 2.</_></rects>
      <tilted>0</tilted></_>
    <_>
      <rects>
        <_>
          11 10 13 4 -1.</_>
        <_>
          11 12 13 2 2.</_></rects>
      <tilted>0</tilted></_>
    <_>
      <rects>
        <_>
          11 18 6 6 -1.</_>
        <_>
          11 20 6 2 3.</_></rects>
      <tilted>0</tilted></_>
    <_>
      <rects>
        <_>
          11 20 6 3 -1.</_>
        <_>
          11 21 6 1 3.</_></rects>
      <tilted>0</tilted></_>
    <_>
      <rects>
        <_>
          13 3 1 6 -1.</_>
        <_>
          13 5 1 2 3.</_></rects>
      <tilted>0</tilted></_>
    <_>
      <rects>
        <_>
          13 8 9 5 -1.</_>
        <_>
          16 8 3 5 3.</_></rects>
      <tilted>0</tilted></_>
    <_>
      <rects>
        <_>
          13 13 3 2 -1.</_>
        <_>
          14 13 1 2 3.</_></rects>
      <tilted>0</tilted></_>
    <_>
      <rects>
        <_>
          14 3 10 9 -1.</_>
        <_>
          19 3 5 9 2.</_></rects>
      <tilted>0</tilted></_>
    <_>
      <rects>
        <_>
          14 6 8 10 -1.</_>
        <_>
          14 6 4 5 2.</_>
        <_>
          18 11 4 5 2.</_></rects>
      <tilted>0</tilted></_>
    <_>
      <rects>
        <_>
          14 17 10 4 -1.</_>
        <_>
          14 17 5 2 2.</_>
        <_>
          19 19 5 2 2.</_></rects>
      <tilted>0</tilted></_>
    <_>
      <rects>
        <_>
          15 2 3 3 -1.</_>
        <_>
          16 2 1 3 3.</_></rects>
      <tilted>0</tilted></_>
    <_>
      <rects>
        <_>
          15 6 2 8 -1.</_>
        <_>
          15 6 1 4 2.</_>
        <_>
          16 10 1 4 2.</_></rects>
      <tilted>0</tilted></_>
    <_>
      <rects>
        <_>
          15 11 6 3 -1.</_>
        <_>
          17 11 2 3 3.</_></rects>
      <tilted>0</tilted></_>
    <_>
      <rects>
        <_>
          15 13 3 2 -1.</_>
        <_>
          16 13 1 2 3.</_></rects>
      <tilted>0</tilted></_>
    <_>
      <rects>
        <_>
          16 3 6 16 -1.</_>
        <_>
          19 3 3 16 2.</_></rects>
      <tilted>0</tilted></_>
    <_>
      <rects>
        <_>
          16 5 6 6 -1.</_>
        <_>
          16 7 6 2 3.</_></rects>
      <tilted>0</tilted></_>
    <_>
      <rects>
        <_>
          18 1 3 17 -1.</_>
        <_>
          19 1 1 17 3.</_></rects>
      <tilted>0</tilted></_></features></cascade>
</opencv_storage>
